Language model created by QuickLM on Fri Dec 20 14:31:46 EST 2019
Copyright (c) 1996-2010 Carnegie Mellon University and Alexander I. Rudnicky

The model is in standard ARPA format, designed by Doug Paul while he was at MITRE.

The code that was used to produce this language model is available in Open Source.
Please visit http://www.speech.cs.cmu.edu/tools/ for more information

The (fixed) discount mass is 0.5. The backoffs are computed using the ratio method.
This model based on a corpus of 14 sentences and 16 words

\data\
ngram 1=15
ngram 2=28
ngram 3=39

\1-grams:
-0.6990 </s> -0.2041
-0.6990 <s> -0.1461
-2.1461 command_back -0.2041
-2.1461 command_end -0.2041
-2.1461 command_next -0.2041
-2.1461 0 -0.2041
-2.1461 1 -0.2041
-2.1461 2 -0.2041
-2.1461 3 -0.2041
-2.1461 4 -0.2041
-2.1461 5 -0.2041
-2.1461 6 -0.2041
-2.1461 7 -0.2041
-2.1461 8 -0.2041
-2.1461 9 -0.2041

\2-grams:
-0.6021 </s> </s> -0.3010
-0.6021 <s> <s> -0.1761
-1.7482 <s> command_back 0.0000
-1.7482 <s> command_end 0.0000
-1.7482 <s> command_next 0.0000
-1.7482 <s> 0 0.0000
-1.7482 <s> 1 0.0000
-1.7482 <s> 2 0.0000
-1.7482 <s> 3 0.0000
-1.7482 <s> 4 0.0000
-1.7482 <s> 5 0.0000
-1.7482 <s> 6 0.0000
-1.7482 <s> 7 0.0000
-1.7482 <s> 8 0.0000
-1.7482 <s> 9 0.0000
-0.3010 command_back </s> -0.1761
-0.3010 command_end </s> -0.1761
-0.3010 command_next </s> -0.1761
-0.3010 0 </s> -0.1761
-0.3010 1 </s> -0.1761
-0.3010 2 </s> -0.1761
-0.3010 3 </s> -0.1761
-0.3010 4 </s> -0.1761
-0.3010 5 </s> -0.1761
-0.3010 6 </s> -0.1761
-0.3010 7 </s> -0.1761
-0.3010 8 </s> -0.1761
-0.3010 9 </s> -0.1761

\3-grams:
-1.4472 <s> <s> command_back
-1.4472 <s> <s> command_end
-1.4472 <s> <s> command_next
-1.4472 <s> <s> 0
-1.4472 <s> <s> 1
-1.4472 <s> <s> 2
-1.4472 <s> <s> 3
-1.4472 <s> <s> 4
-1.4472 <s> <s> 5
-1.4472 <s> <s> 6
-1.4472 <s> <s> 7
-1.4472 <s> <s> 8
-1.4472 <s> <s> 9
-0.3010 <s> command_back </s>
-0.3010 <s> command_end </s>
-0.3010 <s> command_next </s>
-0.3010 <s> 0 </s>
-0.3010 <s> 1 </s>
-0.3010 <s> 2 </s>
-0.3010 <s> 3 </s>
-0.3010 <s> 4 </s>
-0.3010 <s> 5 </s>
-0.3010 <s> 6 </s>
-0.3010 <s> 7 </s>
-0.3010 <s> 8 </s>
-0.3010 <s> 9 </s>
-0.3010 command_back </s> </s>
-0.3010 command_end </s> </s>
-0.3010 command_next </s> </s>
-0.3010 0 </s> </s>
-0.3010 1 </s> </s>
-0.3010 2 </s> </s>
-0.3010 3 </s> </s>
-0.3010 4 </s> </s>
-0.3010 5 </s> </s>
-0.3010 6 </s> </s>
-0.3010 7 </s> </s>
-0.3010 8 </s> </s>
-0.3010 9 </s> </s>

\end\
