Language model created by QuickLM on Fri Dec 20 14:39:25 EST 2019
Copyright (c) 1996-2010 Carnegie Mellon University and Alexander I. Rudnicky

The model is in standard ARPA format, designed by Doug Paul while he was at MITRE.

The code that was used to produce this language model is available in Open Source.
Please visit http://www.speech.cs.cmu.edu/tools/ for more information

The (fixed) discount mass is 0.5. The backoffs are computed using the ratio method.
This model based on a corpus of 14 sentences and 16 words

\data\
ngram 1=15
ngram 2=26
ngram 3=13

\1-grams:
-1.9243 0 -0.2218
-1.9243 1 -0.2218
-1.9243 2 -0.2218
-1.9243 3 -0.2218
-1.9243 4 -0.2218
-1.9243 5 -0.2218
-1.9243 6 -0.2218
-1.9243 7 -0.2218
-1.9243 8 -0.2218
-1.9243 9 -0.2218
-0.7782 </s> -0.3010
-0.7782 <s> -0.2218
-1.9243 command_end -0.2218
-1.9243 command_back -0.2218
-1.9243 command_next -0.2218

\2-grams:
-0.3010 0 </s> -0.3010
-0.3010 1 </s> -0.3010
-0.3010 2 </s> -0.3010
-0.3010 3 </s> -0.3010
-0.3010 4 </s> -0.3010
-0.3010 5 </s> -0.3010
-0.3010 6 </s> -0.3010
-0.3010 7 </s> -0.3010
-0.3010 8 </s> -0.3010
-0.3010 9 </s> -0.3010
-1.4472 <s> 0 0.0000
-1.4472 <s> 1 0.0000
-1.4472 <s> 2 0.0000
-1.4472 <s> 3 0.0000
-1.4472 <s> 4 0.0000
-1.4472 <s> 5 0.0000
-1.4472 <s> 6 0.0000
-1.4472 <s> 7 0.0000
-1.4472 <s> 8 0.0000
-1.4472 <s> 9 0.0000
-1.4472 <s> command_back 0.0000
-1.4472 <s> command_end 0.0000
-1.4472 <s> command_next 0.0000
-0.3010 command_back </s> -0.3010
-0.3010 command_end </s> -0.3010
-0.3010 command_next </s> -0.3010

\3-grams:
-0.3010 <s> 0 </s>
-0.3010 <s> 1 </s>
-0.3010 <s> 2 </s>
-0.3010 <s> 3 </s>
-0.3010 <s> 4 </s>
-0.3010 <s> 5 </s>
-0.3010 <s> 6 </s>
-0.3010 <s> 7 </s>
-0.3010 <s> 8 </s>
-0.3010 <s> 9 </s>
-0.3010 <s> command_back </s>
-0.3010 <s> command_end </s>
-0.3010 <s> command_next </s>

\end\
