
\data\
ngram 1=15

\1-grams:
-1.8467 </s> 0.0000
-99.0000 <s> -0.5796
-3.9389 command_back -0.1386
-4.4629 command_end -0.2803
-3.9707 command_next -0.1938
-4.4531 0 -0.0961
-3.2762 1 -0.1985
-3.4284 2 -0.1829
-3.5254 3 -0.1814
-3.7487 4 -0.1460
-3.7779 5 -0.1546
-3.8971 6 -0.1314
-3.8890 7 -0.1403
-4.0231 8 -0.1230
-4.1374 9 -0.1143

\end\
