
\data\
ngram 1=16


\1-grams:
-1.8467 </s> 0.0000
-99.0000 <s> -0.5796
-4.0231 8 -0.1230
-4.4629 выход -0.2803
-3.9707 дальше -0.1938
-3.4284 2 -0.1829
-4.1374 9 -0.1143
-4.1926 конец -0.1243
-3.9389 назад -0.1386
-4.4531 0 -0.0961
-3.2762 1 -0.1985
-3.7779 5 -0.1546
-3.8890 7 -0.1403
-3.5254 3 -0.1814
-3.7487 4 -0.1460
-3.8971 6 -0.1314

\end\
